0.6000000000000011
0.5664142851385013
0.391033592382603
0.4692750796399244
0.41031971423363134
0.37647219252379077
0.3484013471397055
0.3250559788876199
0.30556720272092563
0.289015237675262
0.2750708195985546
0.26331688086800853
0.25306539554302465
0.24533065893336475
0.23935248549579172
0.2342191980506517
0.22982229807008933
0.22587533735023552
0.22280929010873513
0.22005437159064245
0.21766998715435176
0.21571533939612003
0.21377598450403107
0.2117988226898823
0.2102000037951111
0.20878775358047102
0.20694690789130493
0.20491501090277175
0.2031420780070206
0.2007765629248924
0.19756559190305817
0.1924697386568835
0.18831959867372083
0.18653989828286882
0.18573075094626
0.18563260161952214
0.1880197146377763
0.1888331472038766
0.19029452636340682
0.1912196295386004
0.1933005581833271
0.19451592471693832
0.19396880118186202
0.19282898096783158
0.19110505067554653
0.19071966674256657
0.19039866182450454
0.18895515925686152
0.18822357919608498
0.19050486332136798
0.18915515373070915
0.187750718068803
0.1853709746252478
0.18229664043389077
0.18065031371570775
0.17736807460908538
0.17075066767601021
0.16529894789490934
0.15570751968442212
0.15537011030736073
0.13759705373203257
0.12598200695218506
0.10063129741239907
0.05455690299602267
-0.023953815881552203
-0.13121164407942637
-0.2975356953116298
-0.6659327325261046
-1.2424227366020513
-1.6166176567510537
-1.6312751011395608
-1.819760728784782
-1.6899103149625052
-0.9449037698848135
-0.8487678511559542
-0.8914914381608261
-0.656883787826671
-0.5350755155439488
-0.2652753511552153
-0.08768509495870389
0.035850234395306074
0.10631186375080035
0.14174241009179495
0.15799410678528145
0.17351915896529052
0.17890078170661164
0.18102259113257516
0.1803758453176322
0.17741078883206501
0.1726736119811067
0.1661815293381319
0.1551213641982086
0.12841099368337122
0.07076802358160827
-0.05001046139949009
-0.2458632187460285
-0.7547753186594262
-1.5584795721229159
-1.9923668986493777
-2.8190794961243224
