0.6000000000000011
0.5664142851385013
0.39681624293183615
1.3633462528492548
-0.6443132920192155
1.4275265413720304
0.21100241236983797
0.3634405388095512
0.30116456762621346
0.3184522174373124
0.20607008190802936
0.6541789732840585
-1.9514144399471949
11.053382467108516
-36.61884120402422
81.48040576707544
-99.69190967459687
136.81761073775158
-372.5015442621671
1019.7000439185097
-3679.9534910563716
13592.122841833436
-49172.1452543703
113643.43175430279
-265291.141312738
478525.01455738925
-754941.1502065171
813957.3190966522
-438789.8835321477
107583.24341831116
-15424.920732411358
1155.6125865323213
2.7536360621294746
0.494974608713988
0.2647964734011653
0.21948432801771772
0.20254741886451658
0.19665981415584727
0.1932173149236603
0.19125972288448456
0.1896124721640111
0.18962078502370566
0.1892483099557339
0.1873068284960045
0.1837843620188802
0.1799730143268691
0.17674802375949503
0.17644975591828418
0.17348866012386316
0.16664265472352216
0.15674138226061746
0.1268676731397211
0.06310030285765304
0.007572251450076829
-0.1055673699772535
-0.29003761693218466
-0.5349173568280249
-0.9053974252407407
-1.106889015530162
-1.4694238463201295
-1.9458857133432474
-1.8651453328832404
-1.6526360753365594
-2.11254696262125
-2.2390867419447016
-2.225517556603946
-2.373328222747853
-2.0862170268275007
-1.834552577579466
-1.1762959093819092
-0.8291224641356484
-0.5463671631091297
-0.4422126419437653
-0.22536610105761348
-0.2747029176524126
-0.41731291675267956
-0.7936483943680963
-1.779253260268802
-3.0307000383312057
-5.022351175172389
-7.0308889637667376
-11.669215845740741
-17.255083647119108
-24.762468174089896
-21.793818790305345
-16.61903312428284
-7.33418979535668
-2.1075650334092297
-0.7087765604598281
-0.1713832603568594
-0.08528779442109476
-0.023484236130974605
0.00927636186856336
0.08394211957604139
0.12156703572903696
0.12564074628295138
0.12644679051036214
0.11565718672061436
0.08486145735951578
0.06566748260145563
