0.6000000000000005
0.5692176981317035
0.49695036646062973
0.45673927799403674
0.4096408077700787
0.3769903364328432
0.3514957621055314
0.3220752619258394
0.3034967260219704
0.2846007033250132
0.27004280094001654
0.25781155225017793
0.2471703680028341
0.2388318129360627
0.23183524800498995
0.22639081965938274
0.22166178925963118
0.2177090549053796
0.2143835403987724
0.21168766693860336
0.2096180055738722
0.20717102627455025
0.2049589053542651
0.20303835167707204
0.20170340451875074
0.20059725851180202
0.19985205250802418
0.19878980402695184
0.19760756957866205
0.19585923557815482
0.1930705135471799
0.18815824733212255
0.17538043074617282
0.1424121908122857
0.06661235746555831
-0.14524937463792104
-0.5695087941765928
-1.6134951551403502
-3.6726433368623566
-8.330659869711088
-11.512044663825698
-13.996292870921739
-12.256815823003633
-7.9025299927976675
-4.608866804275088
-3.085832926011832
-2.838976425103308
-2.338030379590635
-2.095478509284414
-1.555601782540323
-1.427788215264577
-1.527773066206755
-2.8123235837016543
-6.045496613528925
-15.177002241278752
-30.31279116816674
-46.87046314951563
-125.64277363021543
-340.2562030191324
-920.5790906093638
-2377.3453807679784
-5181.308736422123
-7913.700810824844
-11366.721992890163
-11610.219209458608
-9619.54853403633
-9323.692076088537
-3499.089532768131
-1726.3784979167947
-977.2973502423104
-501.0854417152914
-291.12673557351536
-248.69773034532574
-296.8038038781565
-545.7535322662789
-991.4584178083958
-1493.7722832896438
-2268.780915990463
-2941.1121371583436
-2709.4440511303596
-2888.0178827423833
-3901.7722973492046
-3389.705496160293
-3068.7576128736337
-2385.530415309318
-2201.836778528425
-2131.573517460908
-1844.8263613717731
-1704.6291173663164
-1379.664036542023
-806.5788375623703
-444.5286562202341
-281.50156537455405
-227.82832658410342
-166.69180455951346
-126.9163735342208
-86.45917873362671
-54.17491746206398
-37.37481416204243
-31.787308881148213
